[{"weights": [0.07603030841524905, 0.9742728798026918, -6.51370445794546, 5.5197703177019], "biases": [-3.0326892238997534, 2.0796101967442953, -3.996675666146064], "loss": 5.91302490234375}, {"weights": [0.8477736908815936, 0.42710745789452065, -5.929563604804341, 4.57077636713985], "biases": [-3.5439761890715524, 1.467062971337025, -2.1029954653176888], "loss": 1.4655499458312988}, {"weights": [0.2668187654727592, 0.24140966451334855, -4.700831759113356, 5.137651654694147], "biases": [-4.014278003723048, 1.1455102037978624, -3.29534104277635], "loss": 0.7538080811500549}, {"weights": [-0.49096993066735317, 0.9660486233164416, -5.35975088469884, 6.12158928575467], "biases": [-2.479435566615109, 2.3903209924485695, -3.0356302700839946], "loss": 3.054666042327881}, {"weights": [0.1857627867743732, 0.21281272253118466, -5.8573211555663685, 4.250053941008089], "biases": [-4.285212599750151, 0.916914389636776, -2.1640906017085557], "loss": 1.0530872344970703}, {"weights": [0.8656650875775818, 0.3517268271238174, -5.371116760818412, 4.490175979824339], "biases": [-3.442295542743799, 2.639207322565097, -2.4603462516942116], "loss": 0.728821337223053}, {"weights": [-0.24534226297948986, -0.24706803853884057, -6.182807766357768, 4.78387444845535], "biases": [-3.971132898809334, 2.1921999361512943, -3.5258166528842474], "loss": 1.2953242063522339}, {"weights": [-0.25942221159150475, 0.03231207512636758, -6.264937953272148, 6.070330008544423], "biases": [-3.8246460539342695, 1.7308496564752005, -3.8185562530136044], "loss": 2.0925893783569336}, {"weights": [0.4527770237971871, 1.080740269238648, -5.871436307865506, 6.004399671968576], "biases": [-2.755539674000831, 0.8019893856587414, -2.329809173614799], "loss": 4.671656608581543}, {"weights": [0.4533294503072425, -0.2365182260330591, -4.868364135847359, 4.510717761335836], "biases": [-3.6780631924240574, 1.5599182379832992, -2.5181413641581476], "loss": 1.551417589187622}, {"weights": [0.6584761932161525, 0.22425639792019858, -5.576267384227775, 6.14895162626687], "biases": [-4.245897778972196, 2.0712644429469944, -2.295582782751457], "loss": 4.731577396392822}, {"weights": [1.0885378642690897, 1.3677432909041094, -6.0012678068145116, 5.688211129970757], "biases": [-4.019976308145922, 2.497493811973081, -3.2441789723246606], "loss": 6.899997711181641}, {"weights": [0.8385849258347808, -0.13712610047545104, -4.694567588789921, 5.26667024557711], "biases": [-2.6918474978595297, 2.015195604109354, -3.028034207838557], "loss": 1.1765879392623901}, {"weights": [0.6117212974686761, 1.2233389419911684, -4.963138659594103, 6.050121845634886], "biases": [-2.4585366182695516, 1.5750824583920737, -3.0822243731582235], "loss": 7.1689043045043945}, {"weights": [0.8345610412539535, 1.2264692117247766, -5.9491229533233705, 5.9479303640651], "biases": [-3.876629997157145, 1.6743863893801103, -3.3828182880020123], "loss": 7.629389762878418}, {"weights": [0.03559210381986666, -0.42773303948008623, -4.650874348472238, 4.969349064746429], "biases": [-3.0617763429835136, 2.5262582695970726, -3.3409168730936147], "loss": 1.9942703247070312}, {"weights": [0.11325158735813845, 0.3169797258845424, -4.62036864326744, 5.499402471670778], "biases": [-4.250196323390311, 1.4823822349040965, -2.5749631107348474], "loss": 3.0577621459960938}, {"weights": [-0.15379926212857853, 0.39410694675908453, -5.777750571436666, 5.481486370858601], "biases": [-2.965663134727196, 0.9099828131341172, -2.5061193756500084], "loss": 1.069187045097351}, {"weights": [-0.02289763110883103, 0.017012176217765185, -5.283224633151272, 4.840652451357843], "biases": [-3.579721093588974, 1.6650127295903487, -2.2845536560853503], "loss": 3.1022307872772217}, {"weights": [0.6516265238224859, -0.5156466494110159, -5.783764442025767, 4.545496429021246], "biases": [-2.5762744818141083, 2.776585867909919, -2.322457552953412], "loss": 2.7667713165283203}, {"weights": [-0.4261158439963395, -0.1269544493956941, -6.08037462744708, 5.120335834635871], "biases": [-3.7895219784832115, 1.5392133412361388, -2.50438620805537], "loss": 3.0952019691467285}, {"weights": [0.2570766214725668, -0.41926644077576797, -6.429765486928486, 4.713278152325232], "biases": [-2.5296603235788417, 1.1657770492686543, -3.346705993366136], "loss": 1.2854737043380737}, {"weights": [0.25139980277279794, -0.1338259124616662, -6.0678501466925585, 4.896846332444719], "biases": [-3.406099464224883, 0.8699278890861168, -2.592168953458411], "loss": 1.0591763257980347}, {"weights": [0.3770444714141228, 1.0052564486938227, -6.052111131908732, 6.095004017508834], "biases": [-3.714808470322394, 1.1216053811012257, -2.0670126448880284], "loss": 1.8234267234802246}, {"weights": [0.2413348567051663, 1.1796308518855338, -5.797792679561944, 5.108991820776253], "biases": [-3.1185551281164754, 1.4277964246295425, -2.179781799360167], "loss": 2.757128953933716}, {"weights": [0.014196722058440803, -0.5238799397271963, -6.225298776877605, 5.556499010665094], "biases": [-3.91310191176764, 1.9282242868146864, -2.0692861763253037], "loss": 7.315659046173096}, {"weights": [0.24237689003912677, -0.006432051361051738, -4.68743403229927, 4.859175869247222], "biases": [-3.9530671236908623, 2.1108444474030703, -3.939846589217197], "loss": 0.9875425100326538}, {"weights": [1.1764526023477802, 1.3508386733020858, -6.389311068165908, 6.1784382366134585], "biases": [-4.019901429140369, 0.8653054642809261, -2.789063355289663], "loss": 7.473507404327393}, {"weights": [1.2779943125212698, 0.468683921220981, -5.344653772650619, 5.504251291795248], "biases": [-2.4927951907382715, 2.6520278222781757, -3.5815758271571605], "loss": 7.187538146972656}, {"weights": [0.39334762788218347, 0.6422929995332229, -5.711676062835782, 4.578735011203082], "biases": [-3.4267668631527455, 1.250944305613007, -3.5191421603066035], "loss": 4.597732067108154}, {"weights": [0.6375801796977327, -0.5992349070726808, -5.7480347409750365, 4.383084076954848], "biases": [-2.9093643926599055, 1.0777916312273639, -2.3241398128334625], "loss": 1.2541792392730713}, {"weights": [-0.37908893372789837, 0.3594931629986289, -5.8510872730796635, 6.073077222066081], "biases": [-3.4646105557285694, 1.8413264840150823, -2.511878269521172], "loss": 6.321855545043945}, {"weights": [0.024245239754152048, 1.3663313453582855, -4.858441418583331, 6.0762717441331695], "biases": [-3.2375139982556584, 2.134839253899097, -3.3546567912293743], "loss": 3.509272336959839}, {"weights": [0.21932670002077392, 0.14004533107910655, -6.034116877634603, 5.429372830567777], "biases": [-3.2443163561178947, 1.3941731946102989, -2.9724309018043478], "loss": 1.0117486715316772}, {"weights": [1.1222925918802424, -0.41624940660876736, -6.553918524140976, 4.220699078404401], "biases": [-2.4528217025551164, 2.1185500533798827, -3.635601874983107], "loss": 5.6722540855407715}, {"weights": [-0.10941499309347635, 0.31349179925040715, -4.758876807010009, 4.63778584826489], "biases": [-3.0757280700316487, 1.3682553219201505, -4.004607221504393], "loss": 1.677642822265625}, {"weights": [0.35574280463891905, 1.315683208098027, -4.866110283781011, 5.7892696479489665], "biases": [-3.9330553752470117, 2.5840106562129144, -2.2123454151462245], "loss": 2.045341968536377}, {"weights": [1.3607938473349206, 0.0733355032435431, -6.041267258836217, 5.937635738337989], "biases": [-4.382199000062343, 2.5410570902329717, -2.592976990319004], "loss": 2.6765689849853516}, {"weights": [0.428644514633129, 0.9875197425435369, -5.548095742278186, 5.0946957085372215], "biases": [-3.9752300390404667, 0.9220563693725385, -2.9546247351037698], "loss": 3.936621904373169}, {"weights": [0.6154633276394457, 0.9873669385396344, -6.376894444399588, 4.917757316266803], "biases": [-3.501555033793979, 1.0804726562825822, -3.9040639039933693], "loss": 11.88714599609375}, {"weights": [-0.36906839190584234, -0.1938291304086165, -6.408216701406071, 4.735166102628004], "biases": [-3.625753644936931, 2.175784988184944, -3.170581274259993], "loss": 1.6973501443862915}, {"weights": [1.042355877127177, 0.2764096797159339, -4.920138622060804, 4.420657107244664], "biases": [-2.7879418397571936, 0.7799078188684527, -3.252177827055944], "loss": 8.030305862426758}, {"weights": [0.5957945329353651, 0.82087682642212, -5.774539403789756, 4.418205151610108], "biases": [-2.841480808387387, 2.4232948459439227, -3.6691676360846874], "loss": 7.3245954513549805}, {"weights": [0.4798102890464402, 0.21071384694136608, -5.2716377585236085, 6.091921476527842], "biases": [-4.234402382563061, 1.492147240821076, -3.699885071500692], "loss": 0.7479268312454224}, {"weights": [0.07520194366212707, -0.22831181314564752, -4.708669721973917, 5.803968309162915], "biases": [-2.5085728684515045, 2.2689074053995046, -3.665906034650447], "loss": 2.4980804920196533}, {"weights": [-0.0020841458321215756, 1.3246628897263475, -6.104809655805298, 4.5162748008909], "biases": [-3.357680963623637, 0.8681420295994926, -2.818590437554694], "loss": 5.237461090087891}, {"weights": [0.22371869816291357, 0.6911750090660971, -6.5687511763465, 4.60081617947978], "biases": [-3.2197863926702652, 1.198196474686648, -3.762853725424381], "loss": 6.462091445922852}, {"weights": [0.7522758076991036, 1.1205939791593094, -6.546774027360677, 5.497819181032768], "biases": [-3.6024807757752235, 0.9212779750809001, -3.535163115777822], "loss": 10.746481895446777}, {"weights": [1.1405879597038604, -0.5598410082872025, -5.176299454121878, 5.716044510079176], "biases": [-3.113592406998885, 1.1393152060995415, -2.1197172670966857], "loss": 2.2273776531219482}, {"weights": [0.4105189510695326, -0.07651409430422029, -4.745967069341265, 5.80734577023281], "biases": [-2.6699417113909623, 1.54851008044007, -3.573338060200562], "loss": 0.7901204824447632}, {"weights": [0.7283018420380549, 0.39381647676699605, -5.660410292902481, 4.51339146238468], "biases": [-3.0647223847508935, 1.7627712378984106, -2.4845484361076426], "loss": 1.8068345785140991}, {"weights": [0.5615473812379361, -0.4754284536263864, -5.844852542733185, 6.154972655759309], "biases": [-2.472397230750887, 2.6118503361743546, -2.8161816100075465], "loss": 5.712597846984863}, {"weights": [0.6394812803047101, 1.375740798303094, -5.509349989573414, 4.642320211341967], "biases": [-3.010349819065852, 2.03401565586256, -3.1859480102107085], "loss": 7.721682548522949}, {"weights": [0.73905237808916, -0.13740093149043198, -4.877237163765341, 5.365546945973309], "biases": [-2.7691528454979393, 2.1926272438530665, -2.821689842109243], "loss": 1.303114414215088}, {"weights": [1.0743591513540252, 0.1382586408044063, -5.290763091342339, 5.361947590349534], "biases": [-4.322515150752223, 0.9438889692355896, -3.745021569261298], "loss": 4.338544845581055}, {"weights": [-0.44393574722161233, -0.18230189406979724, -6.12911104556401, 6.121439850997275], "biases": [-3.0671972903947915, 1.35324179215735, -3.043885853248422], "loss": 3.325782299041748}, {"weights": [0.917039959000187, -0.3994339916755882, -5.0459104298870745, 5.50205096586223], "biases": [-3.10308902948206, 2.763131441796678, -2.067994621287143], "loss": 5.6070122718811035}, {"weights": [-0.12299297481274174, -0.14536615267801822, -6.3258438442552825, 5.356524612354906], "biases": [-4.209102216426645, 1.900512219178886, -3.1568199988878898], "loss": 2.534029245376587}, {"weights": [-0.22187980272894803, -0.009105452880080356, -6.263950897470797, 5.224261237039868], "biases": [-2.7278193262626718, 2.355302482691509, -3.5264991402627848], "loss": 1.8532650470733643}, {"weights": [0.5345881910964565, 0.6585588119123886, -5.369706273310243, 5.7160311559069745], "biases": [-3.184249510587631, 0.8446325479033161, -2.157247867859083], "loss": 1.824878454208374}, {"weights": [-0.4189006906617156, -0.0478561609806728, -6.11750402664296, 4.398826600887165], "biases": [-4.215938137620027, 0.9478200441570412, -2.790712989171991], "loss": 1.04848313331604}, {"weights": [1.1603279286637898, 0.11422779806666272, -5.185513743817161, 4.190899882078369], "biases": [-3.2236600809445255, 0.998134012093854, -2.556547140213791], "loss": 3.765829563140869}, {"weights": [0.6441722202160478, -0.5984400364394302, -5.89603378414431, 6.091693815290842], "biases": [-3.4557626217319437, 0.8102393045680534, -2.925452379966457], "loss": 1.5014604330062866}, {"weights": [0.8365069924934199, 0.12111252796823935, -6.040222918913452, 5.184031438712285], "biases": [-3.946007178614282, 2.623625553205171, -3.9898576090507323], "loss": 0.9187558889389038}, {"weights": [-0.5780673104964562, 0.45744623951009955, -4.597234026982627, 4.843386837382695], "biases": [-4.373082137230551, 1.2869381882367397, -2.5008614082676743], "loss": 1.9822778701782227}, {"weights": [0.5785380350035954, -0.286294049785428, -6.513838589811304, 4.922822599878126], "biases": [-3.681459756018369, 2.772805878153782, -2.054867277260667], "loss": 5.556318283081055}, {"weights": [0.5032446609020877, 0.5845404928342604, -5.303425795561998, 5.7944027119497665], "biases": [-3.17289216344974, 2.255927316975222, -2.5798864141105886], "loss": 0.7968083620071411}, {"weights": [-0.2924064355970443, -0.02402078663213103, -6.517671668903734, 4.951456504549418], "biases": [-3.754036051415307, 1.2808891961226943, -2.3947468880270666], "loss": 2.414991855621338}, {"weights": [-0.3041846936369436, 0.6537752657169662, -5.074650323090214, 5.727054427699301], "biases": [-3.7980850133587483, 2.7632768872605746, -2.3090882899822094], "loss": 7.9688239097595215}, {"weights": [0.7807333336553322, -0.5579325133848023, -6.134890923931641, 5.067640083887622], "biases": [-2.9103518341425936, 2.5167353309416143, -2.0138591039353617], "loss": 4.612232208251953}, {"weights": [0.027207128877262954, 1.1648611970490603, -6.415407104783495, 5.874871005212797], "biases": [-2.8953450232782663, 1.1096636267324713, -3.4350346311641933], "loss": 7.307233810424805}, {"weights": [0.7736148671771497, -0.578088463039742, -5.298171415110127, 4.339124207810619], "biases": [-2.975062647431542, 1.150311438408, -3.1134932444669774], "loss": 1.826589822769165}, {"weights": [0.4984407755490545, -0.35640966181456707, -5.129868404342366, 5.148972734872187], "biases": [-4.2102304101795145, 2.140039898825134, -2.926609449106902], "loss": 2.8140153884887695}, {"weights": [0.16757542435979955, 0.943999199254715, -5.238880209090535, 5.120415500138692], "biases": [-3.3802624044460057, 0.9362281070790432, -3.7073502404957934], "loss": 6.403562545776367}, {"weights": [1.2399392553414827, -0.5185352594821486, -6.491268944659808, 4.71537203833603], "biases": [-3.2969969976594555, 1.9487173406777076, -3.050309627940246], "loss": 2.6113409996032715}, {"weights": [1.073014269938943, 0.8116716633045304, -6.006456947819911, 6.073945569601229], "biases": [-2.922985264509104, 0.9128734651886004, -3.4582998555189834], "loss": 11.275288581848145}, {"weights": [0.10446940947986272, 1.3317665571337685, -5.692894146488472, 5.996772995430016], "biases": [-2.6062388738681577, 1.222262828428244, -2.338396928033185], "loss": 3.9921443462371826}, {"weights": [-0.5231427962884088, 1.1330401423981251, -6.0208642594772295, 5.0739086836037295], "biases": [-3.6745165863136884, 2.6765475225416084, -3.318134433658944], "loss": 1.7747142314910889}, {"weights": [-0.000789577064294833, 0.8099975787549074, -4.9740439263874805, 4.381035291142853], "biases": [-3.5552673737117333, 1.7768108905892321, -3.848892304878567], "loss": 2.429708957672119}, {"weights": [0.18604563994947232, 1.3066937621568442, -6.3328406286228285, 4.600282377505333], "biases": [-2.947059333592632, 1.9270935549183001, -3.9920907912632946], "loss": 10.951759338378906}, {"weights": [0.7995919370162348, 0.24930095188667423, -5.370712115547039, 4.7296997526388305], "biases": [-3.087321481049478, 1.3190341716110399, -2.291174654016846], "loss": 1.5542033910751343}, {"weights": [1.3803912401815455, 1.1354321047571252, -4.618640951673315, 5.155155626754793], "biases": [-3.2968545165531093, 1.6597909062123235, -2.2945702015056906], "loss": 4.091383934020996}, {"weights": [0.10150400754842936, 0.10158961206073946, -4.789957761730484, 4.863470302149371], "biases": [-3.7123150543839873, 1.0456724280356524, -2.1440842179580413], "loss": 1.996899962425232}, {"weights": [0.9147699036843782, 1.2492015819212041, -6.1507567139580255, 5.734988219312881], "biases": [-4.0218896252756755, 1.8129002364966704, -3.8671705631581967], "loss": 10.471372604370117}, {"weights": [0.5760281092379527, -0.3127704114022826, -6.594907063700887, 5.138769294982081], "biases": [-4.044979574374365, 0.8875792014903121, -3.2227443306629198], "loss": 0.9744865894317627}, {"weights": [0.7730778735138646, 1.2697323059700576, -4.633876154804245, 5.927457088598821], "biases": [-4.249427737490147, 0.8761663530178425, -3.155873742026721], "loss": 5.872194766998291}, {"weights": [-0.30807081919032936, 1.055106670679936, -4.8296448695334675, 6.178279579982475], "biases": [-4.250192618617715, 2.138963095104398, -2.2904940609542774], "loss": 5.982128620147705}, {"weights": [0.18742686156582344, 1.0817839525064388, -4.756125906272997, 4.6263879797144885], "biases": [-2.7209978711224005, 0.8896308368448846, -3.4894208440835426], "loss": 8.47960090637207}, {"weights": [-0.1286139284392408, -0.36247970403860114, -5.764063737252956, 5.41005883406212], "biases": [-3.6452488200421778, 1.8222353071287238, -3.4078528330985227], "loss": 1.9807881116867065}, {"weights": [0.0765863042101601, 0.5826480727969843, -5.10583991461476, 5.881720700768201], "biases": [-4.291115072492995, 1.3117206042049117, -2.546807090729259], "loss": 2.345874309539795}, {"weights": [0.41593058451151466, -0.5775407621346271, -6.1694078417899245, 6.077189349602083], "biases": [-2.6197429753194124, 1.1550555019046347, -3.652156647834943], "loss": 1.3497815132141113}, {"weights": [0.7229233764416536, 0.8320430082147239, -5.810462696760368, 4.766888929808675], "biases": [-3.9660533696827636, 1.926305395999797, -2.741511956750309], "loss": 2.417447566986084}, {"weights": [-0.39850875377286216, -0.594850695634682, -4.8919747361538715, 5.640801567604673], "biases": [-3.8763454577673233, 1.372594210589953, -2.5278431591124866], "loss": 3.9662065505981445}, {"weights": [-0.3485358225583283, -0.4406811689960226, -6.339846390492181, 4.216748376546105], "biases": [-4.023598639301041, 1.692432365344514, -3.651354697671097], "loss": 1.1540725231170654}, {"weights": [0.033635489050126366, -0.15932890298644253, -4.807340103180945, 5.945000956490981], "biases": [-2.477592198624306, 1.0576152933194911, -3.56837209367789], "loss": 1.154834508895874}, {"weights": [0.7128029494459978, 1.1399233438599599, -5.602054894177996, 4.31459317794113], "biases": [-4.187514146053283, 1.0326389927969484, -2.612643133208659], "loss": 4.541776657104492}, {"weights": [1.0826867266549547, 0.11682691208873697, -5.742879528183074, 5.653506877051552], "biases": [-2.9682678340605393, 0.9927254856004757, -2.423252993993163], "loss": 3.2223398685455322}, {"weights": [0.49618896570693716, 0.4695941465386273, -5.983778062741986, 6.175936853447233], "biases": [-2.5484168323020704, 0.9227878407581676, -2.10555197525965], "loss": 2.0381360054016113}, {"weights": [1.09857925116252, 0.5258807037514672, -4.76137326838267, 5.189095641297273], "biases": [-3.076591727745284, 1.8870950532920336, -3.3949618343762387], "loss": 5.614448547363281}, {"weights": [0.15934989866503257, -0.1593990032745699, -5.5598239174056445, 4.605384061178653], "biases": [-2.6951410994845633, 2.2916785988656607, -2.914994460875701], "loss": 1.7448705434799194}, {"weights": [0.023250070350269714, 0.5339678120824327, -4.987018102261267, 5.376003245484964], "biases": [-3.927700114563389, 2.3644013602882157, -3.7186361179865473], "loss": 1.2685997486114502}, {"weights": [0.09820362729686727, 0.7115778661727168, -4.879767264366158, 5.435016039187696], "biases": [-3.0647383612021755, 2.695357232169302, -3.138471310452836], "loss": 0.9442402124404907}, {"weights": [-0.2681620654762917, -0.013834937251830826, -4.750306129745148, 5.522861554369209], "biases": [-3.010851638456257, 1.116452336272254, -3.490020259961224], "loss": 1.1615121364593506}, {"weights": [1.0478995451172914, 0.22692799407356223, -5.98830937086207, 4.5319395640577165], "biases": [-3.4959292930439405, 1.050905523668185, -3.3146612683333236], "loss": 6.385446071624756}, {"weights": [0.06701596794216347, 0.2958521252057704, -5.915449130839534, 5.98414146457673], "biases": [-2.671503077162823, 1.719577174510881, -2.405530431591498], "loss": 2.677482843399048}, {"weights": [0.4944144267016566, 1.2543755991976737, -5.4049230862329924, 5.428698814712871], "biases": [-3.0238221180527414, 2.5016826672348036, -2.405802180708334], "loss": 2.7332139015197754}, {"weights": [0.5467772123311763, 0.5646617710725153, -5.712422568009281, 4.273853488817388], "biases": [-2.6228387361122265, 2.3138061637431235, -2.603250270581217], "loss": 2.14680814743042}, {"weights": [0.43274039490817495, 1.286179019349793, -4.729385773688739, 5.554798209125927], "biases": [-2.906185611842933, 1.896023832328168, -3.7649830121604775], "loss": 7.817652702331543}, {"weights": [-0.6049495947378485, 0.5017437836438041, -5.79994273566125, 4.578884172969914], "biases": [-3.3720134757628974, 1.0932341471059766, -3.4442114716070256], "loss": 1.31736421585083}, {"weights": [1.3663651146791507, 0.39079711781171267, -5.639514742177802, 4.241397642350823], "biases": [-3.4152178863986062, 1.5621927541019474, -2.133669983839355], "loss": 3.120266914367676}, {"weights": [1.2003574274367304, -0.6032613019539932, -5.3606986618216865, 5.288622630178425], "biases": [-3.505139064989791, 2.218359169200003, -3.107209327049338], "loss": 2.0664384365081787}, {"weights": [-0.19505400149384078, 0.3514523638634346, -5.785591866980727, 5.813343356873908], "biases": [-4.369300592683761, 1.526492985775227, -2.76857212618878], "loss": 3.698892831802368}, {"weights": [-0.025346898301640164, 1.2445842732388142, -4.610113967078009, 5.906598376277208], "biases": [-3.342311518359459, 0.857906316443827, -3.9756435190635715], "loss": 7.400758743286133}, {"weights": [0.42969458225847723, -0.21359434583305148, -6.39736826981025, 4.39375793001023], "biases": [-3.5666478509613646, 1.9474355380369057, -2.976221532889415], "loss": 1.110835075378418}, {"weights": [1.1934970214348517, -0.5061434551074921, -6.153864203313818, 5.512801651078867], "biases": [-4.09752712618462, 2.219936775276402, -2.6339758887602267], "loss": 2.9569263458251953}, {"weights": [1.356936045936957, 0.20323206306124741, -5.949760576680922, 5.6068665286278545], "biases": [-4.174454921616031, 2.2092105991754165, -3.8944980634386925], "loss": 5.093179225921631}, {"weights": [-0.09524159557832357, 0.13446723730173427, -6.299625151648982, 4.775750067854893], "biases": [-3.5138905617625698, 1.1093992929599594, -3.7816925630143357], "loss": 1.4025065898895264}, {"weights": [0.5183923619630737, 1.1039803918559978, -6.026632369865112, 6.129444077081422], "biases": [-4.3327682112973935, 1.4516507946983706, -3.275523035004684], "loss": 4.01927375793457}, {"weights": [1.0036116443878689, -0.5571034927665708, -5.036580253209261, 4.744091019848008], "biases": [-2.4394345401889854, 1.5980122004843427, -2.1233441025477497], "loss": 1.830063819885254}, {"weights": [0.17841438401905996, 1.2299727356315204, -5.549286837157787, 4.326680458481674], "biases": [-3.6563524557760454, 1.6206304413447548, -3.514665621614416], "loss": 6.063595771789551}, {"weights": [0.8518203478026245, 0.7514802741034232, -6.527163566671782, 5.225276801997567], "biases": [-3.648375932487629, 1.0079845948998583, -3.9690562838223284], "loss": 11.99504280090332}, {"weights": [-0.28818769502806013, 1.198126264241946, -4.629825668553845, 5.57534585206463], "biases": [-4.310341717316519, 1.5507306772932128, -2.3937046842400207], "loss": 1.9679012298583984}, {"weights": [0.5910714117806901, 0.6047324177547879, -5.363057883794928, 4.676035653837184], "biases": [-3.559249650484615, 1.7929319889781616, -2.313764874739838], "loss": 0.7313864231109619}, {"weights": [1.1214031927200399, 1.0135809009857593, -6.477191881722181, 4.863880484171828], "biases": [-4.381103443763409, 2.200788960123246, -2.93887062720937], "loss": 5.00974178314209}, {"weights": [1.3567174945206217, 0.06076202319208257, -5.272733295334262, 5.313972045775054], "biases": [-4.352407051724234, 1.9185629935787032, -2.226167191315569], "loss": 1.7024366855621338}, {"weights": [-0.4515941431304584, 0.08880673216862978, -5.838332097537755, 5.960072411290935], "biases": [-3.734395852065083, 1.5895287366883013, -3.654193479783445], "loss": 2.022824287414551}, {"weights": [0.24636882551540884, 0.16942273677009512, -6.323724244678078, 5.681367891586743], "biases": [-2.7706564228981367, 2.6348623413995713, -3.4629243826841707], "loss": 1.6040593385696411}, {"weights": [-0.20124000479363435, 0.8992684392590771, -5.467741653129837, 4.605899997941475], "biases": [-3.4949521585246996, 1.9758347491539794, -3.9713621592954302], "loss": 2.3568828105926514}, {"weights": [0.2909472571509799, 0.1282566249708058, -5.140910937921562, 4.69027022115412], "biases": [-4.382913159977917, 2.7292493833013296, -2.84539706558983], "loss": 2.541487693786621}, {"weights": [0.48520142137121836, -0.12588611090195523, -5.2528176299879785, 5.234477458046902], "biases": [-4.086154255010743, 2.5144203285907833, -2.2374841321904135], "loss": 5.992147922515869}, {"weights": [-0.42367230314684834, 1.2650109896947022, -6.10004453192751, 5.724633469641643], "biases": [-2.9327488744862964, 2.126919819140732, -2.7994591112661826], "loss": 3.0217180252075195}, {"weights": [-0.016604172925130833, 1.2056964434395907, -5.545338396022407, 5.424239636097388], "biases": [-2.936006844100456, 2.578294606739915, -3.85168998839652], "loss": 4.590305328369141}, {"weights": [1.2448427564178055, 0.08726890828749234, -5.519743950786484, 5.189364612313746], "biases": [-2.9035485055800656, 2.7621469721271557, -2.625814541328178], "loss": 2.3005318641662598}, {"weights": [0.527681738973901, 0.658950416629605, -5.161464110664149, 5.380966759392399], "biases": [-3.709255566022822, 1.221422149818792, -2.6603804034207594], "loss": 1.2573347091674805}, {"weights": [0.30449827116073425, -0.06264130058033823, -5.8753361410460885, 5.698836137971236], "biases": [-3.708040424311936, 2.161780655698111, -3.6787732087450062], "loss": 1.9840723276138306}, {"weights": [0.8967262577097397, -0.1980954664593516, -4.999605648546344, 5.260875667312602], "biases": [-2.808442984311926, 2.6172261716087615, -2.354293047343529], "loss": 2.277071475982666}, {"weights": [0.873398579797585, 0.06235333410709909, -5.339227141137022, 5.982221568119988], "biases": [-3.616318547411562, 0.8144679359234344, -2.1874809047423005], "loss": 1.0137348175048828}, {"weights": [-0.5131676581979523, 0.04387406134451266, -6.518407624891145, 6.080851060692471], "biases": [-2.958212308268766, 2.3786456089556722, -3.2288634575996866], "loss": 5.139797210693359}, {"weights": [0.8070690669990024, 1.154226478506743, -5.502112795590053, 6.017425092962898], "biases": [-3.2503483006275324, 0.9584735156725182, -3.3947333957106975], "loss": 9.830559730529785}, {"weights": [1.0681609717236777, 1.0342819055609613, -4.871246648064682, 5.695752759831958], "biases": [-3.683910959240474, 2.6127762107809303, -2.8629141254171646], "loss": 2.8105006217956543}, {"weights": [-0.27844995547258206, 0.8089207332317061, -5.45992251381766, 4.67935808769436], "biases": [-4.252581278379634, 2.00369436269881, -2.0672272452587888], "loss": 3.0401153564453125}, {"weights": [0.9516701521134252, 1.3083647266313043, -6.243414308016832, 4.95725897172969], "biases": [-4.180343565443171, 1.1038064930236604, -2.5623353909454867], "loss": 5.551827907562256}, {"weights": [-0.037252490428285934, 0.2347609823296266, -5.5743180982330545, 4.746715981844615], "biases": [-2.633476871772084, 0.8584879510326098, -2.4321365242056103], "loss": 0.8418346643447876}, {"weights": [0.0026137827726248064, -0.12025964677513723, -5.08117916586962, 5.502036561830124], "biases": [-3.5079132983451227, 2.435310583442946, -2.4750946851791946], "loss": 6.266791343688965}, {"weights": [0.7201972068128764, -0.37552884950351134, -6.374860446037421, 4.835159328595286], "biases": [-2.4245852405210213, 1.0586514977800818, -2.0982737145595634], "loss": 1.5283221006393433}, {"weights": [-0.3875413806710583, -0.008219007484090102, -4.9608726814477455, 5.695499289520587], "biases": [-3.684800421402881, 2.658750363584147, -2.3798772298111763], "loss": 8.193414688110352}, {"weights": [0.719419173720099, -0.31979825594558225, -6.2601075566021, 4.413734236530479], "biases": [-3.912685709050027, 0.9613981292910034, -3.4756331527112363], "loss": 2.0358328819274902}, {"weights": [1.1653878614659559, -0.4259535291497498, -5.5269178544960935, 5.737445605397298], "biases": [-3.711515678767917, 2.455624583476968, -3.5496595251008047], "loss": 2.001398801803589}, {"weights": [0.782296812584323, 0.5955386695273568, -5.823583874054787, 5.358520029018585], "biases": [-3.7264221244619073, 1.626732702351523, -3.5280803395355607], "loss": 4.595607280731201}, {"weights": [0.2703300294443285, 0.11804917562640405, -6.097823303905511, 5.857493454004915], "biases": [-3.1378808551309634, 2.5251383106707306, -3.58639181412606], "loss": 2.2315316200256348}, {"weights": [0.26610304486795977, 0.5188149613057975, -5.300205812910757, 5.048467383973338], "biases": [-4.38711919102208, 2.3168160994553686, -3.5957348128130455], "loss": 0.8020740747451782}, {"weights": [0.9198664665921237, -0.22765428244537655, -6.5202866213833435, 5.436644986129621], "biases": [-2.8860570438555886, 2.4854321806109057, -2.1432568737118203], "loss": 2.6715235710144043}, {"weights": [0.520958278565276, 0.7434859954190316, -5.0749792254409325, 5.295540342842942], "biases": [-3.579765067995802, 1.7201518007109848, -2.1089367420728506], "loss": 0.749880850315094}, {"weights": [-0.4405173975028547, -0.17931482933517018, -5.541189561459481, 6.138058612418077], "biases": [-3.5481159310505888, 2.2072042493479014, -3.8325528203112684], "loss": 3.0734543800354004}, {"weights": [0.5550164518363196, -0.05427853639841762, -4.843528417840517, 5.697664862548135], "biases": [-3.4503642881284193, 1.417002801271364, -3.8841129298798993], "loss": 0.7378389835357666}, {"weights": [1.01936168190033, 0.873195120403264, -5.553634199085523, 5.276342578527148], "biases": [-3.514169420797456, 0.8740141515173385, -2.298200988094637], "loss": 4.36550235748291}, {"weights": [0.06380704300873019, 0.5091500674029341, -6.525004501860126, 4.534780260789355], "biases": [-3.417652520269102, 1.244467837598601, -2.884777903447212], "loss": 0.8228466510772705}, {"weights": [1.2448274352642896, 0.05934710184754877, -6.307868901163938, 5.994944513412181], "biases": [-3.720785697674843, 0.7823908941010103, -3.589128991855149], "loss": 6.950442314147949}, {"weights": [0.8911082767998464, 0.4756518412038975, -5.003861661646567, 4.598391645078535], "biases": [-3.5059020446093374, 1.505723927867531, -3.088628257371138], "loss": 3.74302339553833}, {"weights": [0.5378019264134393, 0.7776436818299954, -5.6111187412123265, 5.486802593292228], "biases": [-3.6032916470279632, 1.7673252898585707, -3.8647690310832443], "loss": 4.951646327972412}, {"weights": [0.8929622536993473, 1.2139385190687686, -5.711312295996505, 6.059659785661303], "biases": [-3.3761088824357346, 0.8184817911501214, -2.047828262173681], "loss": 4.056300640106201}, {"weights": [-0.45202780241007945, 0.5511007029024182, -5.958201276173235, 4.6338753401352974], "biases": [-3.1660561486776366, 0.7951272463433965, -3.7323587651236014], "loss": 2.7330703735351562}, {"weights": [1.1084524274747334, -0.14495296610072794, -6.025972442393962, 4.638563161184745], "biases": [-3.9305131039548424, 2.152594752755115, -2.3991549590273014], "loss": 1.2563738822937012}, {"weights": [1.0326825025146265, 0.8830695376665034, -4.663298213948714, 5.890353900555964], "biases": [-3.3957200207736036, 0.9805392996341418, -2.095901992094899], "loss": 2.955650806427002}, {"weights": [1.2094175953339283, 0.9452123112229256, -5.729132177361367, 5.842026131649684], "biases": [-3.2233504799680848, 0.9273586283429458, -2.590239403720143], "loss": 6.486181735992432}, {"weights": [-0.3530633288677298, -0.20952309396118174, -4.827064773578188, 4.890122785667323], "biases": [-4.378697689209682, 1.7708639665005292, -3.835159680448818], "loss": 1.0352452993392944}, {"weights": [-0.44676554969851945, 1.0308227154692826, -5.298744592516674, 4.716908657075604], "biases": [-3.3716068410753355, 2.2159862350521244, -2.8322916683623505], "loss": 1.441271185874939}, {"weights": [-0.33349457832331025, 0.3195439855591633, -4.878215546380902, 4.44149302423544], "biases": [-3.9340078263367313, 2.73399809315643, -3.753828629273753], "loss": 1.0349481105804443}, {"weights": [0.1884316963191106, 0.9492076002914009, -4.890171749380247, 6.162588285912204], "biases": [-3.603517222500597, 1.370462216219881, -2.2783615635546672], "loss": 1.3160700798034668}, {"weights": [0.23828799827549418, -0.13536928390995795, -4.682446783348819, 5.857402281472448], "biases": [-2.7595339936751264, 1.0147035638547162, -2.666608916692842], "loss": 1.7909998893737793}, {"weights": [0.5141110335753216, 0.05483481554886305, -5.199186366522034, 5.985499289589988], "biases": [-3.760123124868968, 0.9167407839704309, -2.1281493310384905], "loss": 1.8566526174545288}, {"weights": [-0.3658386246214797, 1.2970685146968162, -4.98427696813949, 5.214074731732729], "biases": [-3.4461604708916482, 1.1946890090660056, -3.7204899152677324], "loss": 4.6643900871276855}, {"weights": [-0.20752672112374804, 0.7053044224131204, -5.12881504812306, 4.415485744284462], "biases": [-4.363112011069662, 0.9797769299989199, -3.1048929132092398], "loss": 1.0635687112808228}, {"weights": [1.0129629726815537, 0.9354299371165942, -5.384617167036661, 4.291876756612533], "biases": [-3.795092562059452, 0.786436338692357, -2.9251353811546887], "loss": 7.340122222900391}, {"weights": [0.32564942422700915, 0.7664229625547685, -5.160362571144759, 4.847880285341813], "biases": [-3.1331521322177283, 1.3498150002105946, -3.795585568921736], "loss": 6.10634708404541}, {"weights": [1.005550695080731, -0.20171748818962432, -5.163570016078557, 6.027376945685594], "biases": [-3.782270769271077, 1.1080813832275282, -2.658450245230381], "loss": 1.402029275894165}, {"weights": [-0.5954729667972638, 0.3310517730065956, -6.513255252855627, 6.0818797499868085], "biases": [-4.0009993060263, 0.8161674200807645, -2.8793903992615313], "loss": 1.9664474725723267}, {"weights": [0.49285972807832135, 1.0076020215370807, -5.562849167865218, 5.869043811250187], "biases": [-3.831282958610592, 1.4889315827848146, -3.316177511329591], "loss": 4.223984241485596}, {"weights": [1.2535385722668668, 0.739744529932254, -5.009768117475273, 4.504074366652995], "biases": [-2.503837704772006, 2.4314991898738816, -3.186426863897686], "loss": 7.078244686126709}, {"weights": [0.5540251944052506, -0.598269952579894, -6.109146465908214, 5.026562421934073], "biases": [-4.238990673885336, 1.3869906464503443, -2.4198037938966053], "loss": 2.500652313232422}, {"weights": [-0.19813426899594144, -0.43551023858084426, -5.6647748659801955, 4.679201917112167], "biases": [-3.485878791240463, 2.1998670888776717, -3.299435183490674], "loss": 1.453944444656372}, {"weights": [0.8251894006726255, 0.08326371654062903, -5.725099417007432, 4.597415629168645], "biases": [-4.295820511072644, 2.2371375111940894, -2.0669953388752553], "loss": 1.8197373151779175}, {"weights": [0.14764597551134573, 1.2784053553506909, -5.789496500359735, 5.556367779933214], "biases": [-3.3352778358122537, 0.8307805432825246, -2.175892361999732], "loss": 3.011314868927002}, {"weights": [0.72644217063243, 0.3720552380626774, -6.3513917833933995, 5.158939415151448], "biases": [-4.120522844420997, 2.703237821758554, -3.8560893955236315], "loss": 0.7707962989807129}, {"weights": [-0.5516862780989473, -0.06997318902582228, -5.5436477563879265, 4.836535369663566], "biases": [-3.1444247078955447, 1.0576864018705248, -2.307427976311515], "loss": 2.011432409286499}, {"weights": [0.6614749948162226, 0.11052171502093, -5.70257410838756, 4.387145004381558], "biases": [-3.88379939340965, 2.214597594497773, -2.664703760147578], "loss": 0.7082333564758301}, {"weights": [-0.5459298540106419, -0.18902046877836332, -5.2682853243729415, 5.276242821695173], "biases": [-3.030763540545367, 1.5385538857955408, -3.9016226351335406], "loss": 1.0837626457214355}, {"weights": [0.8792355863970422, 0.23207439045353562, -5.496244721363319, 4.880766385845708], "biases": [-3.7183021990524345, 2.516112701387283, -2.101529355468945], "loss": 1.238642930984497}, {"weights": [0.3355002805904206, -0.1742548447875406, -6.539984979623916, 4.968907692012833], "biases": [-4.40425734117474, 2.769589672737973, -2.3452876683040405], "loss": 5.178781986236572}, {"weights": [-0.36681701294038244, 1.081179290719366, -6.53123486371672, 4.807733563301326], "biases": [-3.8228049003534026, 1.166313550606073, -2.346893702591701], "loss": 1.431817650794983}, {"weights": [0.47494612769052225, 0.3022154741966361, -5.192351236891757, 4.961106489550948], "biases": [-4.248805440287795, 2.4185788519867595, -2.1809716448815983], "loss": 3.8817026615142822}, {"weights": [-0.47677683743648047, -0.05072168701494928, -5.17990860180951, 5.298435248867366], "biases": [-3.4225150552104306, 1.7906735110493217, -2.1700930270603553], "loss": 5.3953986167907715}, {"weights": [0.6964040188195917, 1.2554575723964738, -4.675192571479289, 4.215003690906], "biases": [-3.8348141810815686, 2.7105297444564904, -3.574102566175782], "loss": 4.799254417419434}, {"weights": [1.3818469308491614, 0.018376983371903743, -4.841661475920599, 5.88201007015887], "biases": [-3.1326105808656353, 2.095845610756996, -2.137536410001863], "loss": 2.3972246646881104}, {"weights": [0.9284689502614352, 1.2091036002001867, -5.658951504153711, 6.030555802969727], "biases": [-3.41272242352711, 1.9661434191830995, -3.9164013703363723], "loss": 11.07089614868164}, {"weights": [0.5372225034311593, -0.5234895419459358, -5.343257815557885, 5.28777546062932], "biases": [-4.340504613198158, 1.2387145110969078, -2.249397018229658], "loss": 3.193120241165161}, {"weights": [-0.4050552054648981, 0.8039043966488626, -5.68070738353569, 4.722758313281147], "biases": [-3.775326517249099, 2.2170677445121436, -3.0988365842693426], "loss": 1.2565712928771973}, {"weights": [0.7893424256593398, 0.357452354182763, -6.149178365592717, 6.167194080140073], "biases": [-3.4344759369107742, 1.3560701900136332, -2.3499261323717837], "loss": 1.5035123825073242}, {"weights": [0.7120100107693725, 0.2781163987694708, -5.8417168444155365, 4.953104139724751], "biases": [-3.268186633221273, 2.471184841372075, -3.4661790320166856], "loss": 1.330566644668579}, {"weights": [-0.5121314626409372, -0.5376790351825267, -6.387302373998891, 5.574026868292908], "biases": [-4.202851730533891, 2.7341949340872356, -2.5025355248197894], "loss": 7.177289009094238}]